digraph Tree {
node [shape=box] ;
0 [label="instrumentalness <= 0.0\ngini = 0.5\nsamples = 1714\nvalue = [860, 854]"] ;
1 [label="speechiness <= 0.124\ngini = 0.458\nsamples = 837\nvalue = [540, 297]"] ;
0 -> 1 [labeldistance=2.5, labelangle=45, headlabel="True"] ;
2 [label="danceability <= 0.714\ngini = 0.39\nsamples = 630\nvalue = [463, 167]"] ;
1 -> 2 ;
3 [label="danceability <= 0.382\ngini = 0.333\nsamples = 459\nvalue = [362, 97]"] ;
2 -> 3 ;
4 [label="gini = 0.5\nsamples = 32\nvalue = [16, 16]"] ;
3 -> 4 ;
5 [label="valence <= 0.74\ngini = 0.307\nsamples = 427\nvalue = [346, 81]"] ;
3 -> 5 ;
6 [label="acousticness <= 0.021\ngini = 0.262\nsamples = 361\nvalue = [305, 56]"] ;
5 -> 6 ;
7 [label="speechiness <= 0.034\ngini = 0.393\nsamples = 108\nvalue = [79, 29]"] ;
6 -> 7 ;
8 [label="gini = 0.069\nsamples = 28\nvalue = [27, 1]"] ;
7 -> 8 ;
9 [label="energy <= 0.645\ngini = 0.455\nsamples = 80\nvalue = [52, 28]"] ;
7 -> 9 ;
10 [label="gini = 0.0\nsamples = 6\nvalue = [0, 6]"] ;
9 -> 10 ;
11 [label="energy <= 0.877\ngini = 0.418\nsamples = 74\nvalue = [52, 22]"] ;
9 -> 11 ;
12 [label="valence <= 0.405\ngini = 0.475\nsamples = 54\nvalue = [33, 21]"] ;
11 -> 12 ;
13 [label="gini = 0.472\nsamples = 21\nvalue = [8, 13]"] ;
12 -> 13 ;
14 [label="gini = 0.367\nsamples = 33\nvalue = [25, 8]"] ;
12 -> 14 ;
15 [label="gini = 0.095\nsamples = 20\nvalue = [19, 1]"] ;
11 -> 15 ;
16 [label="instrumentalness <= 0.0\ngini = 0.191\nsamples = 253\nvalue = [226, 27]"] ;
6 -> 16 ;
17 [label="energy <= 0.627\ngini = 0.158\nsamples = 242\nvalue = [221, 21]"] ;
16 -> 17 ;
18 [label="speechiness <= 0.077\ngini = 0.268\nsamples = 113\nvalue = [95, 18]"] ;
17 -> 18 ;
19 [label="liveness <= 0.52\ngini = 0.198\nsamples = 99\nvalue = [88, 11]"] ;
18 -> 19 ;
20 [label="instrumentalness <= 0.0\ngini = 0.168\nsamples = 97\nvalue = [88, 9]"] ;
19 -> 20 ;
21 [label="valence <= 0.676\ngini = 0.122\nsamples = 92\nvalue = [86, 6]"] ;
20 -> 21 ;
22 [label="energy <= 0.268\ngini = 0.086\nsamples = 89\nvalue = [85, 4]"] ;
21 -> 22 ;
23 [label="gini = 0.346\nsamples = 9\nvalue = [7, 2]"] ;
22 -> 23 ;
24 [label="valence <= 0.594\ngini = 0.049\nsamples = 80\nvalue = [78, 2]"] ;
22 -> 24 ;
25 [label="danceability <= 0.676\ngini = 0.026\nsamples = 76\nvalue = [75, 1]"] ;
24 -> 25 ;
26 [label="gini = 0.0\nsamples = 69\nvalue = [69, 0]"] ;
25 -> 26 ;
27 [label="gini = 0.245\nsamples = 7\nvalue = [6, 1]"] ;
25 -> 27 ;
28 [label="gini = 0.375\nsamples = 4\nvalue = [3, 1]"] ;
24 -> 28 ;
29 [label="gini = 0.444\nsamples = 3\nvalue = [1, 2]"] ;
21 -> 29 ;
30 [label="gini = 0.48\nsamples = 5\nvalue = [2, 3]"] ;
20 -> 30 ;
31 [label="gini = 0.0\nsamples = 2\nvalue = [0, 2]"] ;
19 -> 31 ;
32 [label="gini = 0.5\nsamples = 14\nvalue = [7, 7]"] ;
18 -> 32 ;
33 [label="speechiness <= 0.066\ngini = 0.045\nsamples = 129\nvalue = [126, 3]"] ;
17 -> 33 ;
34 [label="gini = 0.0\nsamples = 89\nvalue = [89, 0]"] ;
33 -> 34 ;
35 [label="gini = 0.139\nsamples = 40\nvalue = [37, 3]"] ;
33 -> 35 ;
36 [label="gini = 0.496\nsamples = 11\nvalue = [5, 6]"] ;
16 -> 36 ;
37 [label="acousticness <= 0.493\ngini = 0.471\nsamples = 66\nvalue = [41, 25]"] ;
5 -> 37 ;
38 [label="loudness <= -8.805\ngini = 0.414\nsamples = 58\nvalue = [41, 17]"] ;
37 -> 38 ;
39 [label="gini = 0.375\nsamples = 8\nvalue = [2, 6]"] ;
38 -> 39 ;
40 [label="key <= 4.5\ngini = 0.343\nsamples = 50\nvalue = [39, 11]"] ;
38 -> 40 ;
41 [label="gini = 0.475\nsamples = 18\nvalue = [11, 7]"] ;
40 -> 41 ;
42 [label="gini = 0.219\nsamples = 32\nvalue = [28, 4]"] ;
40 -> 42 ;
43 [label="gini = 0.0\nsamples = 8\nvalue = [0, 8]"] ;
37 -> 43 ;
44 [label="valence <= 0.379\ngini = 0.484\nsamples = 171\nvalue = [101, 70]"] ;
2 -> 44 ;
45 [label="gini = 0.284\nsamples = 35\nvalue = [6, 29]"] ;
44 -> 45 ;
46 [label="acousticness <= 0.048\ngini = 0.421\nsamples = 136\nvalue = [95, 41]"] ;
44 -> 46 ;
47 [label="gini = 0.5\nsamples = 47\nvalue = [24, 23]"] ;
46 -> 47 ;
48 [label="danceability <= 0.714\ngini = 0.323\nsamples = 89\nvalue = [71, 18]"] ;
46 -> 48 ;
49 [label="gini = 0.0\nsamples = 2\nvalue = [0, 2]"] ;
48 -> 49 ;
50 [label="loudness <= -5.009\ngini = 0.3\nsamples = 87\nvalue = [71, 16]"] ;
48 -> 50 ;
51 [label="energy <= 0.523\ngini = 0.392\nsamples = 56\nvalue = [41, 15]"] ;
50 -> 51 ;
52 [label="gini = 0.117\nsamples = 16\nvalue = [15, 1]"] ;
51 -> 52 ;
53 [label="gini = 0.455\nsamples = 40\nvalue = [26, 14]"] ;
51 -> 53 ;
54 [label="gini = 0.062\nsamples = 31\nvalue = [30, 1]"] ;
50 -> 54 ;
55 [label="danceability <= 0.697\ngini = 0.467\nsamples = 207\nvalue = [77, 130]"] ;
1 -> 55 ;
56 [label="liveness <= 0.285\ngini = 0.499\nsamples = 107\nvalue = [56, 51]"] ;
55 -> 56 ;
57 [label="loudness <= -6.63\ngini = 0.469\nsamples = 72\nvalue = [45, 27]"] ;
56 -> 57 ;
58 [label="gini = 0.488\nsamples = 26\nvalue = [11, 15]"] ;
57 -> 58 ;
59 [label="gini = 0.386\nsamples = 46\nvalue = [34, 12]"] ;
57 -> 59 ;
60 [label="gini = 0.431\nsamples = 35\nvalue = [11, 24]"] ;
56 -> 60 ;
61 [label="loudness <= -5.59\ngini = 0.332\nsamples = 100\nvalue = [21, 79]"] ;
55 -> 61 ;
62 [label="speechiness <= 0.15\ngini = 0.185\nsamples = 58\nvalue = [6, 52]"] ;
61 -> 62 ;
63 [label="gini = 0.48\nsamples = 10\nvalue = [4, 6]"] ;
62 -> 63 ;
64 [label="gini = 0.08\nsamples = 48\nvalue = [2, 46]"] ;
62 -> 64 ;
65 [label="gini = 0.459\nsamples = 42\nvalue = [15, 27]"] ;
61 -> 65 ;
66 [label="energy <= 0.199\ngini = 0.463\nsamples = 877\nvalue = [320, 557]"] ;
0 -> 66 [labeldistance=2.5, labelangle=-45, headlabel="False"] ;
67 [label="danceability <= 0.15\ngini = 0.063\nsamples = 61\nvalue = [59, 2]"] ;
66 -> 67 ;
68 [label="gini = 0.0\nsamples = 1\nvalue = [0, 1]"] ;
67 -> 68 ;
69 [label="instrumentalness <= 0.0\ngini = 0.033\nsamples = 60\nvalue = [59, 1]"] ;
67 -> 69 ;
70 [label="gini = 0.0\nsamples = 1\nvalue = [0, 1]"] ;
69 -> 70 ;
71 [label="gini = 0.0\nsamples = 59\nvalue = [59, 0]"] ;
69 -> 71 ;
72 [label="loudness <= -4.806\ngini = 0.435\nsamples = 816\nvalue = [261, 555]"] ;
66 -> 72 ;
73 [label="valence <= 0.414\ngini = 0.366\nsamples = 646\nvalue = [156, 490]"] ;
72 -> 73 ;
74 [label="energy <= 0.854\ngini = 0.454\nsamples = 267\nvalue = [93, 174]"] ;
73 -> 74 ;
75 [label="acousticness <= 0.296\ngini = 0.423\nsamples = 230\nvalue = [70, 160]"] ;
74 -> 75 ;
76 [label="loudness <= -5.669\ngini = 0.328\nsamples = 155\nvalue = [32, 123]"] ;
75 -> 76 ;
77 [label="speechiness <= 0.031\ngini = 0.269\nsamples = 131\nvalue = [21, 110]"] ;
76 -> 77 ;
78 [label="gini = 0.496\nsamples = 11\nvalue = [5, 6]"] ;
77 -> 78 ;
79 [label="acousticness <= 0.01\ngini = 0.231\nsamples = 120\nvalue = [16, 104]"] ;
77 -> 79 ;
80 [label="gini = 0.364\nsamples = 46\nvalue = [11, 35]"] ;
79 -> 80 ;
81 [label="valence <= 0.036\ngini = 0.126\nsamples = 74\nvalue = [5, 69]"] ;
79 -> 81 ;
82 [label="gini = 0.0\nsamples = 1\nvalue = [1, 0]"] ;
81 -> 82 ;
83 [label="valence <= 0.394\ngini = 0.104\nsamples = 73\nvalue = [4, 69]"] ;
81 -> 83 ;
84 [label="acousticness <= 0.126\ngini = 0.058\nsamples = 67\nvalue = [2, 65]"] ;
83 -> 84 ;
85 [label="gini = 0.0\nsamples = 53\nvalue = [0, 53]"] ;
84 -> 85 ;
86 [label="gini = 0.245\nsamples = 14\nvalue = [2, 12]"] ;
84 -> 86 ;
87 [label="gini = 0.444\nsamples = 6\nvalue = [2, 4]"] ;
83 -> 87 ;
88 [label="gini = 0.497\nsamples = 24\nvalue = [11, 13]"] ;
76 -> 88 ;
89 [label="instrumentalness <= 0.026\ngini = 0.5\nsamples = 75\nvalue = [38, 37]"] ;
75 -> 89 ;
90 [label="gini = 0.42\nsamples = 30\nvalue = [21, 9]"] ;
89 -> 90 ;
91 [label="gini = 0.47\nsamples = 45\nvalue = [17, 28]"] ;
89 -> 91 ;
92 [label="gini = 0.47\nsamples = 37\nvalue = [23, 14]"] ;
74 -> 92 ;
93 [label="instrumentalness <= 0.007\ngini = 0.277\nsamples = 379\nvalue = [63, 316]"] ;
73 -> 93 ;
94 [label="speechiness <= 0.056\ngini = 0.424\nsamples = 141\nvalue = [43, 98]"] ;
93 -> 94 ;
95 [label="valence <= 0.816\ngini = 0.491\nsamples = 76\nvalue = [33, 43]"] ;
94 -> 95 ;
96 [label="instrumentalness <= 0.0\ngini = 0.499\nsamples = 57\nvalue = [30, 27]"] ;
95 -> 96 ;
97 [label="gini = 0.0\nsamples = 4\nvalue = [0, 4]"] ;
96 -> 97 ;
98 [label="instrumentalness <= 0.0\ngini = 0.491\nsamples = 53\nvalue = [30, 23]"] ;
96 -> 98 ;
99 [label="gini = 0.0\nsamples = 5\nvalue = [5, 0]"] ;
98 -> 99 ;
100 [label="gini = 0.499\nsamples = 48\nvalue = [25, 23]"] ;
98 -> 100 ;
101 [label="gini = 0.266\nsamples = 19\nvalue = [3, 16]"] ;
95 -> 101 ;
102 [label="acousticness <= 0.127\ngini = 0.26\nsamples = 65\nvalue = [10, 55]"] ;
94 -> 102 ;
103 [label="gini = 0.397\nsamples = 33\nvalue = [9, 24]"] ;
102 -> 103 ;
104 [label="gini = 0.061\nsamples = 32\nvalue = [1, 31]"] ;
102 -> 104 ;
105 [label="liveness <= 0.911\ngini = 0.154\nsamples = 238\nvalue = [20, 218]"] ;
93 -> 105 ;
106 [label="loudness <= -6.376\ngini = 0.147\nsamples = 237\nvalue = [19, 218]"] ;
105 -> 106 ;
107 [label="speechiness <= 0.03\ngini = 0.091\nsamples = 167\nvalue = [8, 159]"] ;
106 -> 107 ;
108 [label="gini = 0.375\nsamples = 12\nvalue = [3, 9]"] ;
107 -> 108 ;
109 [label="valence <= 0.962\ngini = 0.062\nsamples = 155\nvalue = [5, 150]"] ;
107 -> 109 ;
110 [label="acousticness <= 0.547\ngini = 0.039\nsamples = 149\nvalue = [3, 146]"] ;
109 -> 110 ;
111 [label="loudness <= -11.722\ngini = 0.014\nsamples = 137\nvalue = [1, 136]"] ;
110 -> 111 ;
112 [label="gini = 0.18\nsamples = 10\nvalue = [1, 9]"] ;
111 -> 112 ;
113 [label="gini = 0.0\nsamples = 127\nvalue = [0, 127]"] ;
111 -> 113 ;
114 [label="gini = 0.278\nsamples = 12\nvalue = [2, 10]"] ;
110 -> 114 ;
115 [label="gini = 0.444\nsamples = 6\nvalue = [2, 4]"] ;
109 -> 115 ;
116 [label="loudness <= -6.35\ngini = 0.265\nsamples = 70\nvalue = [11, 59]"] ;
106 -> 116 ;
117 [label="gini = 0.0\nsamples = 2\nvalue = [2, 0]"] ;
116 -> 117 ;
118 [label="danceability <= 0.813\ngini = 0.23\nsamples = 68\nvalue = [9, 59]"] ;
116 -> 118 ;
119 [label="valence <= 0.539\ngini = 0.192\nsamples = 65\nvalue = [7, 58]"] ;
118 -> 119 ;
120 [label="gini = 0.463\nsamples = 11\nvalue = [4, 7]"] ;
119 -> 120 ;
121 [label="energy <= 0.946\ngini = 0.105\nsamples = 54\nvalue = [3, 51]"] ;
119 -> 121 ;
122 [label="key <= 10.5\ngini = 0.074\nsamples = 52\nvalue = [2, 50]"] ;
121 -> 122 ;
123 [label="gini = 0.042\nsamples = 47\nvalue = [1, 46]"] ;
122 -> 123 ;
124 [label="gini = 0.32\nsamples = 5\nvalue = [1, 4]"] ;
122 -> 124 ;
125 [label="gini = 0.5\nsamples = 2\nvalue = [1, 1]"] ;
121 -> 125 ;
126 [label="gini = 0.444\nsamples = 3\nvalue = [2, 1]"] ;
118 -> 126 ;
127 [label="gini = 0.0\nsamples = 1\nvalue = [1, 0]"] ;
105 -> 127 ;
128 [label="valence <= 0.287\ngini = 0.472\nsamples = 170\nvalue = [105, 65]"] ;
72 -> 128 ;
129 [label="energy <= 0.921\ngini = 0.142\nsamples = 52\nvalue = [48, 4]"] ;
128 -> 129 ;
130 [label="gini = 0.308\nsamples = 21\nvalue = [17, 4]"] ;
129 -> 130 ;
131 [label="gini = 0.0\nsamples = 31\nvalue = [31, 0]"] ;
129 -> 131 ;
132 [label="danceability <= 0.397\ngini = 0.499\nsamples = 118\nvalue = [57, 61]"] ;
128 -> 132 ;
133 [label="gini = 0.219\nsamples = 16\nvalue = [2, 14]"] ;
132 -> 133 ;
134 [label="instrumentalness <= 0.206\ngini = 0.497\nsamples = 102\nvalue = [55, 47]"] ;
132 -> 134 ;
135 [label="liveness <= 0.071\ngini = 0.471\nsamples = 79\nvalue = [49, 30]"] ;
134 -> 135 ;
136 [label="gini = 0.0\nsamples = 11\nvalue = [11, 0]"] ;
135 -> 136 ;
137 [label="energy <= 0.666\ngini = 0.493\nsamples = 68\nvalue = [38, 30]"] ;
135 -> 137 ;
138 [label="gini = 0.0\nsamples = 4\nvalue = [0, 4]"] ;
137 -> 138 ;
139 [label="valence <= 0.956\ngini = 0.482\nsamples = 64\nvalue = [38, 26]"] ;
137 -> 139 ;
140 [label="loudness <= -4.468\ngini = 0.47\nsamples = 61\nvalue = [38, 23]"] ;
139 -> 140 ;
141 [label="gini = 0.153\nsamples = 12\nvalue = [11, 1]"] ;
140 -> 141 ;
142 [label="gini = 0.495\nsamples = 49\nvalue = [27, 22]"] ;
140 -> 142 ;
143 [label="gini = 0.0\nsamples = 3\nvalue = [0, 3]"] ;
139 -> 143 ;
144 [label="gini = 0.386\nsamples = 23\nvalue = [6, 17]"] ;
134 -> 144 ;
}
