digraph Tree {
node [shape=box] ;
0 [label="instrumentalness <= 0.0\ngini = 0.5\nsamples = 1714\nvalue = [852, 862]"] ;
1 [label="speechiness <= 0.124\ngini = 0.454\nsamples = 864\nvalue = [563, 301]"] ;
0 -> 1 [labeldistance=2.5, labelangle=45, headlabel="True"] ;
2 [label="danceability <= 0.78\ngini = 0.385\nsamples = 642\nvalue = [475, 167]"] ;
1 -> 2 ;
3 [label="danceability <= 0.374\ngini = 0.346\nsamples = 561\nvalue = [436, 125]"] ;
2 -> 3 ;
4 [label="gini = 0.5\nsamples = 37\nvalue = [18, 19]"] ;
3 -> 4 ;
5 [label="loudness <= -6.438\ngini = 0.323\nsamples = 524\nvalue = [418, 106]"] ;
3 -> 5 ;
6 [label="valence <= 0.602\ngini = 0.421\nsamples = 179\nvalue = [125, 54]"] ;
5 -> 6 ;
7 [label="speechiness <= 0.079\ngini = 0.335\nsamples = 127\nvalue = [100, 27]"] ;
6 -> 7 ;
8 [label="acousticness <= 0.041\ngini = 0.257\nsamples = 112\nvalue = [95, 17]"] ;
7 -> 8 ;
9 [label="gini = 0.49\nsamples = 21\nvalue = [12, 9]"] ;
8 -> 9 ;
10 [label="instrumentalness <= 0.0\ngini = 0.16\nsamples = 91\nvalue = [83, 8]"] ;
8 -> 10 ;
11 [label="energy <= 0.268\ngini = 0.092\nsamples = 83\nvalue = [79, 4]"] ;
10 -> 11 ;
12 [label="gini = 0.375\nsamples = 8\nvalue = [6, 2]"] ;
11 -> 12 ;
13 [label="danceability <= 0.676\ngini = 0.052\nsamples = 75\nvalue = [73, 2]"] ;
11 -> 13 ;
14 [label="gini = 0.0\nsamples = 62\nvalue = [62, 0]"] ;
13 -> 14 ;
15 [label="gini = 0.26\nsamples = 13\nvalue = [11, 2]"] ;
13 -> 15 ;
16 [label="gini = 0.5\nsamples = 8\nvalue = [4, 4]"] ;
10 -> 16 ;
17 [label="gini = 0.444\nsamples = 15\nvalue = [5, 10]"] ;
7 -> 17 ;
18 [label="instrumentalness <= 0.0\ngini = 0.499\nsamples = 52\nvalue = [25, 27]"] ;
6 -> 18 ;
19 [label="gini = 0.47\nsamples = 37\nvalue = [23, 14]"] ;
18 -> 19 ;
20 [label="gini = 0.231\nsamples = 15\nvalue = [2, 13]"] ;
18 -> 20 ;
21 [label="valence <= 0.408\ngini = 0.256\nsamples = 345\nvalue = [293, 52]"] ;
5 -> 21 ;
22 [label="danceability <= 0.707\ngini = 0.385\nsamples = 100\nvalue = [74, 26]"] ;
21 -> 22 ;
23 [label="acousticness <= 0.018\ngini = 0.317\nsamples = 91\nvalue = [73, 18]"] ;
22 -> 23 ;
24 [label="gini = 0.48\nsamples = 35\nvalue = [21, 14]"] ;
23 -> 24 ;
25 [label="energy <= 0.594\ngini = 0.133\nsamples = 56\nvalue = [52, 4]"] ;
23 -> 25 ;
26 [label="gini = 0.463\nsamples = 11\nvalue = [7, 4]"] ;
25 -> 26 ;
27 [label="gini = 0.0\nsamples = 45\nvalue = [45, 0]"] ;
25 -> 27 ;
28 [label="gini = 0.198\nsamples = 9\nvalue = [1, 8]"] ;
22 -> 28 ;
29 [label="valence <= 0.801\ngini = 0.19\nsamples = 245\nvalue = [219, 26]"] ;
21 -> 29 ;
30 [label="liveness <= 0.041\ngini = 0.124\nsamples = 196\nvalue = [183, 13]"] ;
29 -> 30 ;
31 [label="gini = 0.0\nsamples = 1\nvalue = [0, 1]"] ;
30 -> 31 ;
32 [label="instrumentalness <= 0.0\ngini = 0.116\nsamples = 195\nvalue = [183, 12]"] ;
30 -> 32 ;
33 [label="energy <= 0.475\ngini = 0.084\nsamples = 181\nvalue = [173, 8]"] ;
32 -> 33 ;
34 [label="gini = 0.5\nsamples = 2\nvalue = [1, 1]"] ;
33 -> 34 ;
35 [label="valence <= 0.534\ngini = 0.075\nsamples = 179\nvalue = [172, 7]"] ;
33 -> 35 ;
36 [label="valence <= 0.533\ngini = 0.155\nsamples = 71\nvalue = [65, 6]"] ;
35 -> 36 ;
37 [label="danceability <= 0.692\ngini = 0.133\nsamples = 70\nvalue = [65, 5]"] ;
36 -> 37 ;
38 [label="liveness <= 0.106\ngini = 0.067\nsamples = 58\nvalue = [56, 2]"] ;
37 -> 38 ;
39 [label="gini = 0.231\nsamples = 15\nvalue = [13, 2]"] ;
38 -> 39 ;
40 [label="gini = 0.0\nsamples = 43\nvalue = [43, 0]"] ;
38 -> 40 ;
41 [label="gini = 0.375\nsamples = 12\nvalue = [9, 3]"] ;
37 -> 41 ;
42 [label="gini = 0.0\nsamples = 1\nvalue = [0, 1]"] ;
36 -> 42 ;
43 [label="danceability <= 0.425\ngini = 0.018\nsamples = 108\nvalue = [107, 1]"] ;
35 -> 43 ;
44 [label="gini = 0.375\nsamples = 4\nvalue = [3, 1]"] ;
43 -> 44 ;
45 [label="gini = 0.0\nsamples = 104\nvalue = [104, 0]"] ;
43 -> 45 ;
46 [label="gini = 0.408\nsamples = 14\nvalue = [10, 4]"] ;
32 -> 46 ;
47 [label="gini = 0.39\nsamples = 49\nvalue = [36, 13]"] ;
29 -> 47 ;
48 [label="valence <= 0.503\ngini = 0.499\nsamples = 81\nvalue = [39, 42]"] ;
2 -> 48 ;
49 [label="gini = 0.255\nsamples = 20\nvalue = [3, 17]"] ;
48 -> 49 ;
50 [label="danceability <= 0.807\ngini = 0.484\nsamples = 61\nvalue = [36, 25]"] ;
48 -> 50 ;
51 [label="gini = 0.26\nsamples = 13\nvalue = [2, 11]"] ;
50 -> 51 ;
52 [label="gini = 0.413\nsamples = 48\nvalue = [34, 14]"] ;
50 -> 52 ;
53 [label="danceability <= 0.719\ngini = 0.479\nsamples = 222\nvalue = [88, 134]"] ;
1 -> 53 ;
54 [label="loudness <= -3.558\ngini = 0.499\nsamples = 140\nvalue = [73, 67]"] ;
53 -> 54 ;
55 [label="speechiness <= 0.236\ngini = 0.498\nsamples = 122\nvalue = [57, 65]"] ;
54 -> 55 ;
56 [label="valence <= 0.241\ngini = 0.476\nsamples = 64\nvalue = [39, 25]"] ;
55 -> 56 ;
57 [label="gini = 0.245\nsamples = 7\nvalue = [1, 6]"] ;
56 -> 57 ;
58 [label="liveness <= 0.237\ngini = 0.444\nsamples = 57\nvalue = [38, 19]"] ;
56 -> 58 ;
59 [label="gini = 0.339\nsamples = 37\nvalue = [29, 8]"] ;
58 -> 59 ;
60 [label="gini = 0.495\nsamples = 20\nvalue = [9, 11]"] ;
58 -> 60 ;
61 [label="valence <= 0.592\ngini = 0.428\nsamples = 58\nvalue = [18, 40]"] ;
55 -> 61 ;
62 [label="gini = 0.498\nsamples = 30\nvalue = [14, 16]"] ;
61 -> 62 ;
63 [label="gini = 0.245\nsamples = 28\nvalue = [4, 24]"] ;
61 -> 63 ;
64 [label="gini = 0.198\nsamples = 18\nvalue = [16, 2]"] ;
54 -> 64 ;
65 [label="loudness <= -5.59\ngini = 0.299\nsamples = 82\nvalue = [15, 67]"] ;
53 -> 65 ;
66 [label="gini = 0.081\nsamples = 47\nvalue = [2, 45]"] ;
65 -> 66 ;
67 [label="gini = 0.467\nsamples = 35\nvalue = [13, 22]"] ;
65 -> 67 ;
68 [label="energy <= 0.213\ngini = 0.449\nsamples = 850\nvalue = [289, 561]"] ;
0 -> 68 [labeldistance=2.5, labelangle=-45, headlabel="False"] ;
69 [label="danceability <= 0.15\ngini = 0.1\nsamples = 57\nvalue = [54, 3]"] ;
68 -> 69 ;
70 [label="gini = 0.0\nsamples = 1\nvalue = [0, 1]"] ;
69 -> 70 ;
71 [label="instrumentalness <= 0.0\ngini = 0.069\nsamples = 56\nvalue = [54, 2]"] ;
69 -> 71 ;
72 [label="gini = 0.0\nsamples = 1\nvalue = [0, 1]"] ;
71 -> 72 ;
73 [label="valence <= 0.321\ngini = 0.036\nsamples = 55\nvalue = [54, 1]"] ;
71 -> 73 ;
74 [label="gini = 0.0\nsamples = 50\nvalue = [50, 0]"] ;
73 -> 74 ;
75 [label="gini = 0.32\nsamples = 5\nvalue = [4, 1]"] ;
73 -> 75 ;
76 [label="loudness <= -5.732\ngini = 0.417\nsamples = 793\nvalue = [235, 558]"] ;
68 -> 76 ;
77 [label="instrumentalness <= 0.008\ngini = 0.292\nsamples = 519\nvalue = [92, 427]"] ;
76 -> 77 ;
78 [label="speechiness <= 0.036\ngini = 0.411\nsamples = 173\nvalue = [50, 123]"] ;
77 -> 78 ;
79 [label="gini = 0.496\nsamples = 35\nvalue = [19, 16]"] ;
78 -> 79 ;
80 [label="energy <= 0.877\ngini = 0.348\nsamples = 138\nvalue = [31, 107]"] ;
78 -> 80 ;
81 [label="instrumentalness <= 0.0\ngini = 0.308\nsamples = 126\nvalue = [24, 102]"] ;
80 -> 81 ;
82 [label="gini = 0.49\nsamples = 7\nvalue = [4, 3]"] ;
81 -> 82 ;
83 [label="energy <= 0.288\ngini = 0.28\nsamples = 119\nvalue = [20, 99]"] ;
81 -> 83 ;
84 [label="gini = 0.0\nsamples = 1\nvalue = [1, 0]"] ;
83 -> 84 ;
85 [label="loudness <= -6.549\ngini = 0.27\nsamples = 118\nvalue = [19, 99]"] ;
83 -> 85 ;
86 [label="instrumentalness <= 0.003\ngini = 0.219\nsamples = 96\nvalue = [12, 84]"] ;
85 -> 86 ;
87 [label="energy <= 0.483\ngini = 0.156\nsamples = 82\nvalue = [7, 75]"] ;
86 -> 87 ;
88 [label="gini = 0.351\nsamples = 22\nvalue = [5, 17]"] ;
87 -> 88 ;
89 [label="acousticness <= 0.003\ngini = 0.064\nsamples = 60\nvalue = [2, 58]"] ;
87 -> 89 ;
90 [label="gini = 0.5\nsamples = 2\nvalue = [1, 1]"] ;
89 -> 90 ;
91 [label="valence <= 0.914\ngini = 0.034\nsamples = 58\nvalue = [1, 57]"] ;
89 -> 91 ;
92 [label="gini = 0.0\nsamples = 55\nvalue = [0, 55]"] ;
91 -> 92 ;
93 [label="gini = 0.444\nsamples = 3\nvalue = [1, 2]"] ;
91 -> 93 ;
94 [label="gini = 0.459\nsamples = 14\nvalue = [5, 9]"] ;
86 -> 94 ;
95 [label="gini = 0.434\nsamples = 22\nvalue = [7, 15]"] ;
85 -> 95 ;
96 [label="gini = 0.486\nsamples = 12\nvalue = [7, 5]"] ;
80 -> 96 ;
97 [label="acousticness <= 0.901\ngini = 0.213\nsamples = 346\nvalue = [42, 304]"] ;
77 -> 97 ;
98 [label="danceability <= 0.269\ngini = 0.192\nsamples = 335\nvalue = [36, 299]"] ;
97 -> 98 ;
99 [label="gini = 0.496\nsamples = 11\nvalue = [5, 6]"] ;
98 -> 99 ;
100 [label="loudness <= -6.124\ngini = 0.173\nsamples = 324\nvalue = [31, 293]"] ;
98 -> 100 ;
101 [label="valence <= 0.035\ngini = 0.145\nsamples = 293\nvalue = [23, 270]"] ;
100 -> 101 ;
102 [label="gini = 0.0\nsamples = 1\nvalue = [1, 0]"] ;
101 -> 102 ;
103 [label="speechiness <= 0.029\ngini = 0.139\nsamples = 292\nvalue = [22, 270]"] ;
101 -> 103 ;
104 [label="gini = 0.391\nsamples = 15\nvalue = [4, 11]"] ;
103 -> 104 ;
105 [label="valence <= 0.962\ngini = 0.122\nsamples = 277\nvalue = [18, 259]"] ;
103 -> 105 ;
106 [label="valence <= 0.382\ngini = 0.111\nsamples = 271\nvalue = [16, 255]"] ;
105 -> 106 ;
107 [label="valence <= 0.377\ngini = 0.194\nsamples = 101\nvalue = [11, 90]"] ;
106 -> 107 ;
108 [label="instrumentalness <= 0.63\ngini = 0.18\nsamples = 100\nvalue = [10, 90]"] ;
107 -> 108 ;
109 [label="instrumentalness <= 0.584\ngini = 0.27\nsamples = 56\nvalue = [9, 47]"] ;
108 -> 109 ;
110 [label="danceability <= 0.797\ngini = 0.229\nsamples = 53\nvalue = [7, 46]"] ;
109 -> 110 ;
111 [label="gini = 0.156\nsamples = 47\nvalue = [4, 43]"] ;
110 -> 111 ;
112 [label="gini = 0.5\nsamples = 6\nvalue = [3, 3]"] ;
110 -> 112 ;
113 [label="gini = 0.444\nsamples = 3\nvalue = [2, 1]"] ;
109 -> 113 ;
114 [label="gini = 0.044\nsamples = 44\nvalue = [1, 43]"] ;
108 -> 114 ;
115 [label="gini = 0.0\nsamples = 1\nvalue = [1, 0]"] ;
107 -> 115 ;
116 [label="instrumentalness <= 0.016\ngini = 0.057\nsamples = 170\nvalue = [5, 165]"] ;
106 -> 116 ;
117 [label="gini = 0.245\nsamples = 21\nvalue = [3, 18]"] ;
116 -> 117 ;
118 [label="danceability <= 0.515\ngini = 0.026\nsamples = 149\nvalue = [2, 147]"] ;
116 -> 118 ;
119 [label="gini = 0.231\nsamples = 15\nvalue = [2, 13]"] ;
118 -> 119 ;
120 [label="gini = 0.0\nsamples = 134\nvalue = [0, 134]"] ;
118 -> 120 ;
121 [label="gini = 0.444\nsamples = 6\nvalue = [2, 4]"] ;
105 -> 121 ;
122 [label="gini = 0.383\nsamples = 31\nvalue = [8, 23]"] ;
100 -> 122 ;
123 [label="gini = 0.496\nsamples = 11\nvalue = [6, 5]"] ;
97 -> 123 ;
124 [label="valence <= 0.281\ngini = 0.499\nsamples = 274\nvalue = [143, 131]"] ;
76 -> 124 ;
125 [label="energy <= 0.739\ngini = 0.317\nsamples = 76\nvalue = [61, 15]"] ;
124 -> 125 ;
126 [label="gini = 0.346\nsamples = 9\nvalue = [2, 7]"] ;
125 -> 126 ;
127 [label="loudness <= -4.667\ngini = 0.21\nsamples = 67\nvalue = [59, 8]"] ;
125 -> 127 ;
128 [label="gini = 0.432\nsamples = 19\nvalue = [13, 6]"] ;
127 -> 128 ;
129 [label="gini = 0.08\nsamples = 48\nvalue = [46, 2]"] ;
127 -> 129 ;
130 [label="instrumentalness <= 0.136\ngini = 0.485\nsamples = 198\nvalue = [82, 116]"] ;
124 -> 130 ;
131 [label="instrumentalness <= 0.072\ngini = 0.5\nsamples = 142\nvalue = [69, 73]"] ;
130 -> 131 ;
132 [label="danceability <= 0.707\ngini = 0.496\nsamples = 134\nvalue = [61, 73]"] ;
131 -> 132 ;
133 [label="valence <= 0.674\ngini = 0.466\nsamples = 92\nvalue = [34, 58]"] ;
132 -> 133 ;
134 [label="instrumentalness <= 0.0\ngini = 0.499\nsamples = 65\nvalue = [31, 34]"] ;
133 -> 134 ;
135 [label="gini = 0.0\nsamples = 6\nvalue = [0, 6]"] ;
134 -> 135 ;
136 [label="acousticness <= 0.137\ngini = 0.499\nsamples = 59\nvalue = [31, 28]"] ;
134 -> 136 ;
137 [label="instrumentalness <= 0.001\ngini = 0.487\nsamples = 50\nvalue = [29, 21]"] ;
136 -> 137 ;
138 [label="gini = 0.231\nsamples = 15\nvalue = [13, 2]"] ;
137 -> 138 ;
139 [label="gini = 0.496\nsamples = 35\nvalue = [16, 19]"] ;
137 -> 139 ;
140 [label="gini = 0.346\nsamples = 9\nvalue = [2, 7]"] ;
136 -> 140 ;
141 [label="gini = 0.198\nsamples = 27\nvalue = [3, 24]"] ;
133 -> 141 ;
142 [label="gini = 0.459\nsamples = 42\nvalue = [27, 15]"] ;
132 -> 142 ;
143 [label="gini = 0.0\nsamples = 8\nvalue = [8, 0]"] ;
131 -> 143 ;
144 [label="energy <= 0.987\ngini = 0.357\nsamples = 56\nvalue = [13, 43]"] ;
130 -> 144 ;
145 [label="danceability <= 0.84\ngini = 0.306\nsamples = 53\nvalue = [10, 43]"] ;
144 -> 145 ;
146 [label="instrumentalness <= 0.929\ngini = 0.286\nsamples = 52\nvalue = [9, 43]"] ;
145 -> 146 ;
147 [label="speechiness <= 0.064\ngini = 0.265\nsamples = 51\nvalue = [8, 43]"] ;
146 -> 147 ;
148 [label="gini = 0.121\nsamples = 31\nvalue = [2, 29]"] ;
147 -> 148 ;
149 [label="gini = 0.42\nsamples = 20\nvalue = [6, 14]"] ;
147 -> 149 ;
150 [label="gini = 0.0\nsamples = 1\nvalue = [1, 0]"] ;
146 -> 150 ;
151 [label="gini = 0.0\nsamples = 1\nvalue = [1, 0]"] ;
145 -> 151 ;
152 [label="gini = 0.0\nsamples = 3\nvalue = [3, 0]"] ;
144 -> 152 ;
}
